/*!
 * The following copyright notice may not be removed under any circumstances.
 * 
 * Copyright:
 * Copyright (c) 2011 by Brittney Murphy. All rights reserved.
 * 
 * Trademark:
 * Simply*Glamorous is a trademark of Brittney Murphy.
 * 
 * Description:
 * Copyright (c) 2011 by Brittney Murphy. All rights reserved.
 * 
 * Manufacturer:
 * Brittney Murphy
 * 
 * Designer:
 * http://www.brittneymurphydesign.com/
 */
Cufon.registerFont({"w":127,"face":{"font-family":"Simply*Glamorous","font-weight":400,"font-stretch":"normal","units-per-em":"360","panose-1":"0 0 0 0 0 0 0 0 0 0","ascent":"270","descent":"-90","x-height":"7","cap-height":"166","bbox":"-168.006 -350.624 882 336.682","underline-thickness":"18","underline-position":"-18","unicode-range":"U+0020-U+007E"},"glyphs":{" ":{"w":101},"b":{"d":"11,-17v-13,-2,-8,-24,-8,-37r0,-226r10,-1r0,235v18,-45,41,-109,105,-94v50,51,-25,118,-66,141v-15,9,-20,-7,-10,-16v34,8,67,-52,83,-82v11,-41,-40,-41,-61,-20v-24,25,-36,61,-49,97v-1,2,-2,3,-4,3","w":146,"k":{"b":6}},"g":{"d":"112,-133v-65,-10,-86,50,-94,104v-4,27,33,24,41,4v19,-25,27,-65,41,-94v7,-8,8,-1,13,10r49,141r35,-10r4,11r-36,9v13,50,7,110,-28,134v-38,57,-198,60,-169,-39v37,-57,113,-81,183,-102r-47,-137v-13,40,-26,91,-66,105v-62,-10,-9,-107,13,-128v15,-14,37,-27,64,-18xm20,205v98,14,163,-63,134,-160v-69,20,-148,40,-176,99v-15,32,16,57,42,61","w":153,"k":{"g":12}},"l":{"d":"37,-52v-19,-58,-25,-119,-33,-190v-4,-37,11,-76,43,-45v36,35,71,100,42,165v-12,26,-25,51,-41,72v14,37,31,72,68,87r-7,9v-35,-14,-53,-53,-68,-87v-12,15,-28,25,-56,26r0,-11v27,4,41,-11,52,-26xm19,-287v-9,78,9,156,26,225v32,-39,68,-121,26,-177v-13,-19,-24,-40,-46,-50v-2,-1,-4,0,-6,2","w":106,"k":{"a":22,"y":6,"l":26}},"m":{"d":"41,-132v-11,40,-7,98,-13,146r-13,-4v9,-60,7,-127,-36,-153r7,-8v17,12,33,29,38,54v2,-19,2,-57,25,-43v17,21,13,63,29,83v31,-26,30,-91,59,-119v18,-1,16,37,19,56v7,51,2,111,25,146v7,6,18,4,30,2r3,10v-90,18,-52,-119,-75,-200v-25,37,-24,93,-61,118v-32,-10,-17,-66,-37,-88","w":171},"o":{"d":"62,-140v81,27,47,179,-38,147v-54,-39,-4,-141,30,-168r8,9v-31,24,-57,80,-48,133v18,40,82,8,82,-25v10,-41,-11,-73,-41,-87","w":117},"u":{"d":"75,-66v-12,21,-24,52,-53,56v-45,-14,1,-79,-8,-123v-1,-7,-7,-11,-14,-13r3,-10v51,20,-4,90,15,133v37,0,43,-46,57,-74v3,-23,-1,-52,11,-66v3,2,8,1,6,5v4,23,0,45,-6,64v-1,62,2,129,25,169r-9,6v-21,-35,-23,-96,-27,-147","w":101,"k":{"r":-16}},"r":{"d":"110,-186v-72,16,-74,97,-76,183r-11,1v1,-60,6,-131,-41,-145r3,-10v24,5,37,24,45,45v10,-41,38,-72,76,-85","w":75,"k":{"q":16,"k":-20,"f":-18,"n":-12,"t":-16,"s":16,"r":-12,"m":-16,"l":-20,"g":24}},"s":{"d":"179,-69r-34,7v-17,48,-70,77,-125,77v-25,0,-33,-20,-14,-34v32,-24,81,-42,126,-52v-20,-29,-84,-13,-108,-39v-7,-39,49,-48,80,-60r5,10v-27,9,-64,19,-75,44v30,20,95,7,110,43r34,-7xm10,0v44,10,93,-24,119,-50v3,-4,5,-8,5,-12v-42,14,-94,24,-122,51v-4,5,-4,8,-2,11","w":154,"k":{"s":35}},"i":{"d":"38,28v-65,-21,-4,-121,-19,-184r11,-2v9,44,-11,87,-11,135v0,21,5,36,21,40xm15,-198v10,-8,22,5,11,8v-6,6,-9,-1,-11,-8","w":50,"k":{"m":-9}},"p":{"d":"22,-82v20,63,42,172,11,238v-6,14,-21,10,-24,-5v-16,-82,-5,-197,10,-277v6,-33,56,-48,78,-17v33,27,35,111,-16,120r-8,-8v56,-9,42,-114,-7,-118v-31,-2,-43,34,-44,67xm19,-54r-5,176v1,12,5,19,7,29v33,-49,10,-149,-2,-205","w":131,"k":{"p":15,"l":26}},"y":{"d":"124,21v14,-5,26,-9,40,-12r3,11r-42,12v10,70,-14,158,-87,132v-40,-35,-1,-95,30,-113r46,-27r-13,-124v-19,39,-47,86,-88,98v-3,-1,-4,-4,-4,-10v3,-42,21,-107,-18,-123r3,-9v47,11,27,81,27,124v40,-12,65,-69,79,-110v2,-5,9,-6,11,0v0,53,9,102,13,151xm53,159v54,3,67,-64,63,-123v-40,23,-96,46,-81,107v6,8,12,14,18,16","w":140},"e":{"d":"12,-69v-9,-11,-41,-35,-21,-50v5,13,14,27,22,37v2,-34,13,-61,31,-80v24,-15,33,17,35,41v3,40,-21,76,-59,57v-2,29,3,73,38,60v14,-5,22,-15,34,-23r5,10v-16,19,-67,42,-81,4v-6,-15,-6,-37,-4,-56xm22,-75v40,18,54,-30,42,-68v-2,-7,-6,-17,-13,-10v-16,18,-25,48,-29,78","w":106,"k":{"e":20}},"t":{"d":"74,-17v-10,16,-46,33,-62,11v-26,-37,-1,-106,4,-150r-31,11r-2,-12r35,-11v2,-18,2,-41,-4,-54r10,-4v5,14,7,36,5,55r46,-14r3,10r-51,16v-2,49,-32,119,3,152v16,4,25,-6,35,-16","w":74,"k":{"t":14}},"n":{"d":"12,-150v-10,0,-16,8,-18,18r-11,-3v3,-16,33,-40,42,-13v11,37,7,89,15,127v15,-37,13,-89,39,-115v84,-19,-2,178,100,193r-2,16v-82,-16,-51,-137,-82,-203v-43,16,-21,95,-54,128v-30,-22,-9,-103,-29,-148","w":133,"k":{"n":18}},"z":{"d":"128,-136v-31,3,-59,30,-91,21v-5,-6,-7,-15,-10,-22r9,-3v7,29,49,9,69,1v14,-5,34,-17,49,-10v-39,55,-94,87,-134,139v60,7,132,18,185,35r-2,10r-170,-35v-12,-2,-23,-3,-31,-3v35,-46,87,-89,126,-133","w":164,"k":{"z":32}},"d":{"d":"96,-60v6,45,14,88,30,123r-10,4v-15,-32,-23,-70,-29,-110v-10,38,-84,63,-84,3v0,-54,23,-93,75,-96r-3,-121v-3,-21,16,-32,28,-13v34,55,25,161,-7,210xm33,-13v47,-4,58,-58,46,-110v-45,-7,-78,56,-59,101v3,5,7,8,13,9xm94,-80v27,-48,30,-148,-4,-189v-13,59,0,129,4,189","w":139,"k":{"d":29}},"c":{"d":"34,10v-57,0,-27,-101,-10,-133v9,-16,29,-52,43,-18v5,13,12,30,13,47r-11,1v-1,-18,-2,-44,-20,-50v-22,30,-52,88,-29,134v16,20,48,-1,64,-13v13,-11,24,-24,35,-40r9,6v-17,30,-49,66,-94,66"},"f":{"d":"21,9v-15,-42,-10,-103,-6,-153v-11,1,-33,22,-34,2v8,-8,25,-9,35,-13v4,-55,7,-108,28,-141v33,-13,42,44,34,82v-3,13,-3,29,-16,21v9,-28,13,-79,-10,-96v-18,34,-22,83,-26,130r38,-14r4,11v-15,4,-29,7,-43,14v-3,52,-9,112,6,155","w":51,"k":{"]":-35,")":-58,"x":-3,"q":13,"k":-21,"j":-24,"h":-24,"f":-9,"d":20,"z":-16,"n":-12,"t":-26,"i":-12,"s":13,"r":-14,"u":-11,"o":9,"l":-29,"b":-31}},"h":{"d":"15,-4v-28,-85,8,-198,-8,-289r10,-5v17,85,-15,186,2,272v21,-45,42,-98,78,-126v29,6,14,75,14,108v0,49,10,103,61,78r2,11v-95,37,-63,-100,-75,-184v-32,32,-61,81,-73,133v-1,6,-8,6,-11,2"},"j":{"d":"53,24r52,4r0,10r-52,-2v3,90,-41,150,-135,134v-39,-7,-71,-26,-86,-58v-1,-85,126,-76,210,-88v-5,-64,-20,-120,-28,-181r10,0xm-157,96v0,97,198,84,198,-26v0,-11,1,-22,1,-34v-66,6,-140,7,-182,36v-11,8,-17,16,-17,24xm7,-198v10,-8,21,5,10,8v-2,1,-4,3,-7,3","w":63},"k":{"d":"26,-205v0,-15,-2,-48,-11,-31r-11,-2v2,-10,23,-23,28,-6v9,27,2,65,0,95v25,-32,57,-60,85,-89r8,8v-32,32,-66,62,-93,98v22,-14,71,-20,78,15v10,54,-21,89,-20,144v-1,20,7,32,26,33r-2,11v-78,-21,0,-124,-15,-185v-8,-33,-53,-14,-70,-4v-4,42,-14,88,-1,128r-11,3v-12,-38,-3,-80,0,-121v-3,-1,-7,-3,-7,-6v11,-23,16,-55,16,-91","w":126},"v":{"d":"49,10v-10,9,-12,-3,-15,-17v-7,-37,-6,-87,-24,-114v-5,-7,-16,7,-23,-1v37,-32,46,20,50,55r7,55r20,-98v8,-33,17,-66,31,-94r10,4v-31,60,-37,139,-56,210xm-13,-122r0,-1r0,1","w":95,"k":{"r":-12}},"w":{"d":"189,-33v-23,55,-144,69,-125,-21v-8,20,-13,46,-28,59v-25,-16,-1,-111,-25,-144v-3,-3,-7,-1,-12,6r-11,-3v10,-17,31,-23,38,0v10,33,11,79,11,122r27,-66v3,-5,8,-3,10,1v-9,46,4,89,50,82v32,-5,80,-49,51,-90v-19,-28,-56,-46,-104,-52r4,-10v55,11,110,30,121,85v1,10,-2,19,-7,31","w":201},"q":{"d":"117,139v-60,-19,-32,-133,-29,-190v-28,14,-47,24,-76,21v-35,-20,7,-68,25,-83v17,-14,38,-27,63,-31r-4,12v-40,10,-73,36,-85,72v-9,26,16,27,38,17v11,-4,25,-12,42,-23v5,-24,11,-87,36,-57v7,28,-6,52,-27,64v-5,55,-24,141,8,180v37,26,64,-37,64,-85v0,-26,-38,-40,-53,-16r-11,0v6,-19,43,-35,60,-15v36,42,3,134,-51,134xm104,-74v10,-8,18,-25,14,-43v-12,2,-10,32,-14,43","w":136,"k":{"u":12}},"x":{"d":"20,39v-11,-47,7,-83,26,-116v-7,-25,-9,-71,-41,-61v-5,2,-12,7,-18,15r-5,-10v20,-25,54,-25,64,8v3,10,6,23,8,37v13,-23,29,-48,49,-65r5,10v-22,15,-37,43,-51,67v11,49,24,107,66,124v26,-1,34,-21,45,-48r11,0v-10,32,-21,55,-49,60v-52,-10,-69,-70,-80,-122v-15,28,-32,61,-20,99","w":115},"A":{"d":"534,180v-107,15,-197,-17,-190,-129v-45,66,-188,94,-251,22v-42,-48,-21,-143,17,-173v13,-10,18,-19,30,-31v-46,3,-111,19,-135,-15v-3,-83,109,-98,183,-120r3,11v-70,14,-139,37,-174,84v-15,37,38,38,74,36v24,-1,61,-1,72,-18v64,-54,136,-102,233,-123v32,-6,67,20,38,41v-72,55,-174,79,-277,101v-38,42,-101,92,-73,172v24,64,123,92,192,52v26,-15,50,-33,69,-55v7,-59,19,-114,55,-144v18,-8,23,15,18,35v-12,47,-37,82,-63,114v-13,112,69,143,180,129xm426,-243v10,-13,0,-23,-18,-22v-105,11,-171,69,-237,119v91,-20,174,-47,244,-87v5,-3,8,-6,11,-10xm405,-98v-29,27,-40,71,-48,119v21,-33,57,-65,48,-119","w":430},"B":{"d":"258,-90v69,-5,113,-34,154,-68v19,-16,34,-51,12,-75v-71,-76,-260,-70,-358,-25v-24,11,-50,21,-74,33r-4,-10v107,-74,356,-102,449,1v34,72,-46,112,-101,136v77,3,165,0,177,69v-5,43,-42,63,-69,83v28,7,47,17,68,29r-5,10v-22,-14,-44,-26,-75,-31v-44,28,-93,49,-144,68v0,10,5,23,-9,22r-1,-18v-71,20,-162,58,-246,31v-37,-12,-42,-72,-8,-94v57,-37,149,-44,243,-43r-16,-93v-22,6,-62,32,-88,18v1,-33,55,-34,84,-42r-25,-100v-7,-27,-21,-56,-25,-86r10,-3xm276,122v1,-30,-5,-54,-7,-82v-89,-3,-178,3,-234,37v-29,18,-33,62,-1,76v78,33,174,-11,242,-31xm500,-25v-8,-74,-117,-61,-194,-60r-44,16r17,98v54,3,104,11,152,21v29,-20,61,-36,69,-75xm280,41r7,77v44,-16,93,-37,131,-60v-43,-11,-89,-14,-138,-17xm174,-53v28,-4,55,-13,75,-25v-26,6,-59,8,-75,25xm260,-80r0,0r0,0","w":524},"C":{"d":"14,29v-41,-72,17,-150,54,-194r-59,-53v17,-17,33,26,51,33v5,5,11,9,16,13v67,-68,157,-128,277,-140v57,-6,98,34,77,88v-39,100,-247,121,-353,66v-48,43,-95,150,-31,213v65,64,216,78,315,34v51,-23,97,-51,139,-84r7,9v-101,106,-401,179,-493,15xm86,-169v92,60,308,33,333,-64v23,-89,-99,-72,-160,-48v-66,26,-126,65,-173,112","w":446},"D":{"d":"3,-269v91,-40,258,-40,332,18v47,37,94,120,57,192v-41,79,-130,128,-228,150r7,32r-10,3r-8,-32v-56,-4,-128,-1,-145,-44v16,-44,82,-41,128,-55v-10,-99,-13,-201,-48,-276v-29,4,-55,12,-80,21xm148,5v4,26,6,53,13,76v92,-21,183,-60,217,-136v70,-156,-94,-259,-279,-228v33,77,39,177,48,277r12,-2r2,11xm150,82v-5,-25,-12,-50,-12,-76v-40,8,-90,9,-113,34v-19,20,20,29,38,33v25,6,56,12,87,9","w":413},"E":{"d":"235,-82v-59,12,-147,34,-203,9v-57,-26,-6,-91,30,-112v-20,-10,-37,-22,-54,-36r7,-9v17,13,33,28,53,38v59,-47,127,-81,211,-102v48,-11,93,10,78,59v-44,55,-141,61,-236,65v-19,0,-34,-5,-49,-10v-20,18,-50,42,-54,71v27,70,172,24,239,12v22,-11,44,-26,74,-29v16,-2,13,16,2,19v-69,19,-144,40,-154,112v-11,78,116,47,169,30r3,11v-57,16,-184,51,-184,-41v9,-40,38,-68,68,-87xm348,-258v-25,-55,-118,-12,-158,5v-39,16,-79,41,-110,65v95,18,212,2,261,-49v7,-7,8,-15,7,-21xm324,-114v-8,1,-18,5,-24,8","w":366},"F":{"d":"27,-176v122,35,218,-48,329,-59v8,22,20,45,25,69v33,-23,63,-56,120,-51r-2,10v-51,0,-87,28,-115,53v24,62,41,185,-12,231v-21,27,-71,41,-103,14v-33,-28,-19,-90,-1,-121v27,-47,64,-94,105,-129v-5,-19,-13,-51,-20,-65v-112,14,-210,93,-336,57v-52,-27,12,-76,41,-89v52,-23,117,-33,190,-33v59,0,104,24,161,24v31,0,58,-13,66,-37r11,1v-20,70,-128,36,-190,27v-110,-15,-228,1,-280,63v-12,15,-5,30,11,35xm376,-147v-50,49,-102,98,-119,177v-11,53,53,83,95,50v52,-42,54,-150,24,-227","w":447},"G":{"d":"159,36v-61,15,-162,22,-160,-52v3,-73,55,-110,93,-148v16,-16,35,-30,56,-45v-8,-5,-21,-17,-27,-25v17,-15,22,14,37,18v65,-41,128,-86,230,-86v45,0,81,25,84,73v-22,45,-93,51,-147,61v-68,12,-123,-7,-166,-36v-58,47,-124,91,-149,171v3,131,210,43,278,14v46,-20,97,-41,134,-70v3,-8,13,-19,22,-11v8,11,-8,17,-15,23v-5,39,-1,85,-2,130r82,-7r1,11r-83,6v4,153,-99,206,-233,221v-70,8,-115,-20,-129,-77v1,-112,156,-114,256,-140r95,-13r2,-125v-79,43,-162,83,-259,107xm108,256v128,46,297,-15,305,-155v1,-12,3,-25,3,-37v-119,16,-246,29,-322,90v-30,24,-19,90,14,102xm447,-258v-54,-71,-185,-10,-237,21v-15,9,-29,17,-43,27v71,54,211,34,280,-5v16,-9,10,-30,0,-43","w":482},"H":{"d":"254,-89v-36,5,-75,7,-97,26v8,5,12,4,20,5r-2,10v-10,-1,-29,-6,-30,-14v18,-31,69,-33,112,-38v9,-46,23,-87,29,-138v6,-51,-46,-38,-78,-25v-23,9,-43,17,-64,27v14,100,-17,194,-61,255v-25,15,-42,-12,-54,-27v-56,-64,-12,-161,40,-194v21,-13,40,-29,63,-40v0,-16,-20,-30,-4,-38v7,8,10,21,13,33v43,-15,81,-43,137,-37v44,36,0,133,-8,184v134,8,191,96,252,177v-3,-134,20,-258,48,-368r9,5v-29,108,-55,257,-42,389v11,14,27,32,27,56v-36,11,-29,-60,-53,-78v-58,-80,-115,-163,-244,-170v-16,61,-38,116,-48,183r-11,-3v9,-63,30,-122,46,-180xm75,11v42,-56,70,-148,59,-242v-58,35,-124,71,-121,162v8,33,25,66,52,81v3,2,6,1,10,-1","w":559},"I":{"d":"288,166v-27,-28,-55,-48,-80,-75v-11,-11,-12,-11,-22,-23v-38,78,-210,60,-183,-47v7,-24,28,-41,49,-54r8,8v-32,15,-68,62,-36,102v21,27,77,44,114,20v15,-9,28,-21,41,-37v-50,-66,-118,-122,-129,-223v-9,-83,54,-127,124,-144v124,-2,126,164,82,257v-18,38,-39,80,-63,110r44,45v18,18,40,33,57,52xm186,53v46,-65,97,-147,86,-255v-6,-63,-69,-117,-138,-80v-49,26,-83,64,-70,132v15,80,67,141,122,203","w":288},"J":{"d":"514,62r297,19r-1,10v-107,-1,-196,-12,-298,-19v-15,199,-306,238,-464,137v-50,-32,-57,-111,4,-130v121,-38,304,-26,450,-17v11,-117,-26,-207,-33,-317v-48,12,-91,17,-145,21r-1,-11v53,-4,104,-8,146,-23v-7,-34,24,-70,44,-36v0,21,-15,39,-34,44v5,113,47,200,35,322xm18,146v28,129,320,142,414,52v34,-32,61,-71,69,-126v-47,-3,-94,-7,-140,-8v-111,-2,-240,-8,-316,33v-18,9,-32,24,-27,49xm479,-272v13,-3,31,-24,17,-37v-12,4,-16,21,-17,37","w":532},"K":{"d":"87,-280v-34,0,-64,18,-66,54r-10,1v-2,-69,104,-85,133,-32v21,38,32,100,26,158r106,-114v26,-27,26,-28,53,-60r9,7r-128,140v32,-23,95,-60,140,-28v40,58,8,162,14,251v3,53,5,113,54,113v14,0,27,-5,38,-8r3,10v-139,44,-101,-157,-101,-296v0,-40,-9,-83,-58,-72v-54,13,-96,39,-132,72v-23,100,-66,183,-90,281r-10,-3r18,-66v29,-90,76,-163,76,-281v0,-59,-11,-127,-75,-127","w":385},"L":{"d":"265,-224v13,61,31,136,23,206v150,58,296,173,514,111r3,10v-143,43,-312,0,-406,-60v-34,-22,-71,-38,-114,-50v-28,74,-76,143,-171,143v-60,0,-107,-44,-114,-99v14,-76,125,-68,210,-68v22,1,45,4,67,10v11,-70,-11,-140,-21,-201v-34,9,-69,15,-107,18r0,-11v32,-3,74,-8,105,-16v-18,-56,18,-108,74,-80v36,18,10,66,-18,71v-14,7,-29,12,-45,16xm96,123v100,16,149,-60,178,-133v-82,-17,-214,-25,-258,29v-15,54,33,96,80,104xm329,-297v-26,-24,-78,-5,-68,36v0,9,1,18,2,27v32,-10,90,-23,66,-63","w":352},"M":{"d":"500,-195v-13,129,-94,343,68,352r-2,10v-161,1,-105,-209,-81,-327v11,-56,5,-114,-43,-124v-142,14,-138,180,-161,313v-2,8,-6,18,-14,10v-11,-34,-5,-75,-9,-119v-5,-53,0,-122,-47,-134v-35,17,-36,75,-36,121v0,49,6,95,17,130v-23,5,-21,-49,-24,-78v-9,-73,5,-168,-25,-220v-20,-14,-42,10,-56,21v-12,9,-21,21,-30,34v19,54,37,150,8,207v-26,32,-62,-10,-62,-48v0,-67,15,-121,42,-162r-23,-39v14,-13,22,19,30,31v21,-23,42,-54,82,-57v40,7,34,71,38,115v2,-65,60,-87,81,-28v19,55,13,135,20,202v16,-128,27,-269,129,-307v65,-24,105,28,98,97xm50,-196v-34,44,-53,138,-18,193v47,15,38,-60,36,-105v-1,-32,-9,-63,-18,-88","w":506},"N":{"d":"125,-24v3,48,-54,73,-80,38v-36,-49,-8,-154,24,-188v-12,-19,-27,-36,-42,-52r9,-7r40,50v35,-43,67,-90,124,-106v85,-25,89,90,97,173v27,-62,70,-124,135,-146v116,-13,78,171,91,291v12,108,30,205,119,231r-4,11v-162,-51,-105,-309,-148,-487v-6,-26,-23,-54,-57,-39v-90,40,-152,133,-134,283r4,101r-12,2r-4,-239v-8,-71,-1,-159,-66,-174v-67,14,-101,64,-139,107v26,35,39,91,43,151xm75,-166v-29,39,-50,121,-19,172v14,23,50,10,54,-14v11,-62,-8,-113,-35,-158","w":542},"O":{"d":"462,-233v-91,-64,-265,-34,-345,17r-7,-9v105,-72,352,-77,411,37v29,57,39,141,10,203v-55,119,-214,194,-383,145v-77,-23,-179,-88,-138,-187v40,-98,149,-146,265,-173r4,10v-95,18,-174,61,-230,119v-31,32,-50,86,-22,135v62,108,302,132,407,44v82,-42,140,-182,78,-291v-13,-22,-31,-37,-50,-50","w":563},"Q":{"d":"629,216v-64,11,-116,-7,-116,-75v0,-28,-6,-53,-21,-68v-77,99,-305,141,-426,47v-44,-33,-85,-83,-56,-147v43,-97,149,-146,265,-173r4,10v-95,18,-174,61,-230,119v-31,32,-53,88,-22,135v35,51,107,93,188,98v74,-48,140,-106,259,-106v7,1,13,2,17,4v51,-49,68,-175,21,-243v-38,-54,-97,-87,-185,-87v-84,0,-155,23,-210,54r-7,-9v105,-72,349,-75,411,37v43,78,34,203,-23,254v47,33,-7,157,105,142v9,-1,17,-1,26,-2r0,10xm232,164v109,2,196,-36,249,-96v-104,-11,-181,52,-249,96","w":564},"P":{"d":"1,-117v26,-41,119,-69,164,-24v24,15,46,34,63,57v7,-126,56,-237,195,-214v109,18,192,91,203,204v13,140,-119,189,-251,206r0,-11v115,-13,218,-50,238,-153v22,-112,-60,-174,-134,-217v-43,-25,-115,-26,-158,0v-58,34,-81,108,-83,198v59,75,115,191,94,325v-5,31,-31,76,-62,48v-73,-65,-46,-245,-43,-374v-33,-42,-84,-92,-154,-80v-21,4,-42,20,-61,43xm299,297v69,-109,-5,-282,-62,-355r-4,198v6,64,5,135,51,159v5,2,10,2,15,-2","w":638},"R":{"d":"384,-6v145,69,274,172,495,153r3,10v-228,23,-362,-86,-510,-158v-24,11,-46,24,-81,24v42,93,-5,211,-87,226v-77,14,-95,-79,-105,-146v-14,-92,7,-188,42,-246v-36,-30,-71,-59,-113,-81r5,-10v40,22,79,48,114,80v52,-81,134,-146,257,-146v75,0,143,34,143,108v0,97,-95,142,-163,186xm272,-14v28,-14,72,-7,99,3v72,-42,152,-87,163,-181v11,-96,-137,-115,-219,-83v-69,27,-123,68,-158,128v43,39,86,83,115,133xm278,22v-11,-3,-22,-13,-15,-29v-29,-50,-70,-92,-112,-129v-54,89,-66,291,9,363v99,40,170,-106,118,-205xm358,-5v-23,-7,-58,-8,-80,1r7,16v28,3,55,-8,73,-17","w":908},"S":{"d":"30,-101v126,47,317,17,372,132v114,-6,230,-3,339,5r-1,9r-248,-7r-88,3v4,118,-95,163,-209,163v-65,0,-120,-16,-130,-72v28,-110,198,-84,326,-101v-58,-100,-231,-80,-354,-116v-23,-7,-43,-24,-32,-56v39,-116,207,-186,341,-117v26,13,47,40,28,75v-6,11,-15,23,-29,36r-9,-6v29,-19,47,-60,17,-87v-61,-56,-208,-36,-264,9v-33,27,-64,56,-77,102v-4,14,8,24,18,28xm82,110v-29,87,119,100,197,71v60,-23,122,-55,116,-138v-132,2,-251,4,-313,67","w":413},"T":{"d":"310,-237v12,-4,31,4,18,9r-46,18v-29,110,73,167,73,276v0,88,-76,124,-142,152v-59,24,-150,41,-193,-4v-24,-107,100,-140,185,-171v29,-10,58,-14,88,-17r3,10v-117,18,-227,50,-271,141v-4,93,166,42,216,16v61,-32,126,-91,92,-180v-26,-68,-78,-126,-65,-217v-67,26,-134,70,-230,65v-24,-2,-46,-29,-31,-51v70,-103,240,-111,412,-103r0,10v-162,-5,-318,0,-396,86v-25,27,7,55,44,50v80,-12,146,-47,208,-72v9,-9,19,-17,35,-18","w":345},"U":{"d":"349,-35v14,41,33,81,64,104r-6,8v-32,-22,-51,-65,-66,-103v-36,42,-74,84,-150,86v-74,3,-119,-39,-103,-118v11,-55,36,-102,34,-166v-2,-45,-75,-62,-110,-36r-10,-6v30,-31,105,-17,121,18v39,85,-61,175,-16,265v26,51,138,36,173,0v22,-15,41,-36,58,-56v-22,-70,-49,-150,-41,-238v4,-39,47,-33,62,-7v35,38,85,98,49,162v-18,31,-37,61,-59,87xm326,-296v-28,7,-19,66,-16,95v6,54,20,108,36,153v29,-41,88,-98,52,-164v-17,-31,-40,-69,-72,-84","w":425},"V":{"d":"296,239v-2,-203,19,-406,95,-538r10,2v-70,134,-101,322,-92,523v1,25,-26,42,-37,16v-54,-128,-52,-308,-149,-392v-29,-25,-83,-3,-98,19r-9,-9v26,-24,84,-50,118,-16v92,92,95,272,152,399v3,4,9,0,10,-4","w":354},"W":{"d":"270,-234v90,60,37,236,54,363v2,7,5,13,11,15v44,-51,41,-154,82,-207v23,41,10,120,44,160v18,43,86,59,125,21v64,-63,59,-205,2,-272v-51,-60,-119,-111,-199,-142r3,-10v109,41,205,108,244,218v35,100,-7,217,-95,241v-96,2,-121,-99,-124,-201r-42,135v-10,25,-18,59,-41,69v-49,-29,-17,-135,-19,-206v-3,-85,-1,-186,-89,-181v-54,3,-93,36,-114,75v58,35,110,106,85,198v-8,29,-37,36,-58,14v-42,-44,-76,-131,-41,-207r-58,-36r4,-10v18,11,40,20,59,36v24,-51,95,-98,167,-73xm168,60v52,-38,10,-158,-29,-181v-11,-7,-21,-17,-32,-25v-30,78,0,179,61,206","w":662},"X":{"d":"633,75v-59,42,-156,81,-234,37v-71,-41,-104,-138,-140,-216v-63,93,-142,178,-135,335r-11,1v-7,-153,75,-252,141,-348v-40,-76,-54,-191,-173,-178v-25,3,-49,18,-67,31r-7,-8v32,-28,106,-53,153,-20v52,37,76,104,102,165v57,-62,112,-129,186,-174r4,11v-75,44,-131,110,-185,175r34,80v37,73,78,156,179,156v58,0,106,-28,146,-54","w":349,"k":{"k":-45,"f":-73,"l":17}},"Y":{"d":"459,74v106,-20,236,-25,358,-18r2,11v-127,-8,-254,-6,-361,18v13,106,43,275,-114,249v-79,-12,-152,-55,-183,-111v-14,-92,100,-106,177,-123r110,-24v-6,-53,-17,-91,-28,-137v-25,56,-53,114,-112,133v-102,33,-105,-98,-77,-183v22,-68,37,-193,-66,-181v-35,4,-64,23,-87,40v63,42,62,229,-45,206v-20,-9,-30,-35,-30,-65v-1,-69,26,-106,60,-141v-10,-10,-28,-24,-42,-30r2,-11v19,7,34,22,48,33v37,-38,153,-72,177,-1v33,98,-37,184,-21,286v6,40,68,49,100,25v41,-31,69,-77,90,-127v-9,-50,-25,-99,-21,-158v1,-7,5,-20,16,-19v48,26,40,125,16,174v12,48,19,97,26,148xm209,264v64,62,251,110,251,-45v0,-48,-7,-87,-10,-132v-89,25,-195,34,-264,79v-39,25,-3,82,23,98xm70,-245v-39,33,-75,108,-48,173v37,45,87,-12,87,-65v0,-48,-14,-85,-39,-108xm424,-96v15,-44,21,-124,-15,-147v-11,48,7,104,15,147xm237,-91v0,-1,1,-3,1,-4v0,1,-1,3,-1,4xm238,-96r0,1r0,-1","w":456},"Z":{"d":"52,-36v85,16,193,30,281,1r4,10v-88,34,-208,15,-297,-3v-11,5,-24,14,-37,10v-1,-15,14,-21,31,-21v104,-65,186,-155,277,-230v-74,26,-195,46,-268,5v5,-23,28,6,43,5v83,23,173,-8,242,-25v2,30,-46,45,-63,69r-191,165v-6,5,-14,9,-22,14","w":348},"0":{"d":"70,-231v-48,30,-68,110,-53,185v14,68,110,15,122,-21v42,-66,0,-173,-75,-177r-3,-11v63,2,88,57,105,108v6,80,-36,144,-114,144v-77,0,-53,-150,-23,-199v8,-15,19,-27,33,-37","w":173},"1":{"d":"28,6v6,-81,4,-169,19,-241v-7,6,-18,14,-27,18r-3,-11v16,-5,25,-23,41,-28v2,39,-11,87,-13,132r-6,127","w":73},"2":{"d":"155,-17v-56,0,-105,14,-146,29v-6,3,-7,-3,-6,-8v26,-83,85,-135,101,-225v4,-24,-9,-26,-30,-16v-12,6,-28,16,-48,31r-7,-9v22,-16,46,-37,75,-41v27,-4,25,30,16,56v-23,74,-66,131,-95,200v35,-19,85,-26,138,-27","w":156},"3":{"d":"40,-146v52,-12,115,10,94,64v-16,43,-52,81,-106,81v-7,0,-13,-1,-19,-4r4,-10v49,11,88,-27,106,-58v21,-35,-5,-70,-47,-66r-44,4v-10,-27,66,-57,35,-104v-9,-14,-41,-4,-54,1v-2,-28,55,-23,64,-6v20,38,-12,77,-33,98","w":147},"4":{"d":"89,-133v4,-43,11,-77,11,-123r11,0v-1,43,-7,84,-10,125r15,-2v4,11,-4,13,-16,12v-5,40,-7,87,8,118r-10,4v-13,-36,-15,-78,-10,-124v-25,-3,-39,-19,-60,-26v-5,8,-14,30,-26,20v-5,-15,14,-21,20,-31v17,-27,25,-65,11,-100r10,-6v17,32,5,81,-10,107v21,6,34,21,56,26","w":121},"5":{"d":"138,-237v-27,5,-62,8,-84,19r-14,80v33,-19,111,-24,102,30v-20,51,-72,84,-127,102v-6,0,-11,-2,-14,-6r14,-11v34,11,77,-42,103,-62v7,-10,22,-32,11,-46v-26,-22,-76,-4,-99,8v2,-34,6,-74,16,-101v20,-19,63,-15,92,-24r0,11","w":149},"6":{"d":"72,-20v0,13,1,27,8,33r-8,7v-6,-6,-9,-20,-11,-32v-12,7,-20,16,-39,13v-18,-3,-22,-24,-22,-44v0,-69,56,-151,18,-215r10,-7v45,73,-31,157,-14,242v4,22,34,10,46,-1v0,-47,3,-117,51,-94v27,37,-15,78,-39,98xm97,-113v-29,6,-23,46,-25,80v16,-18,38,-33,38,-64v0,-8,-6,-14,-13,-16","w":129},"7":{"d":"80,-253v-14,-14,-51,-5,-71,-2r-5,-10v30,-1,96,-22,85,24v-20,82,-62,148,-67,247r-10,3v3,-105,47,-174,68,-262","w":98},"8":{"d":"60,-155v14,-25,36,-42,35,-84r11,1v0,43,-23,65,-39,91v26,27,70,72,33,116v-12,22,-69,65,-76,15v-7,-50,13,-95,31,-129v-27,-29,-90,-102,-13,-121v15,-3,33,-1,44,5r-4,10v-30,-16,-86,0,-63,40v11,19,25,41,41,56xm62,-136v-16,29,-34,82,-25,126v34,21,78,-40,61,-83v-11,-15,-24,-29,-36,-43","w":123},"9":{"d":"118,-244v-10,77,-38,157,-22,255r-10,5v-11,-85,0,-166,17,-235v-18,24,-42,53,-72,63v-39,13,-32,-39,-17,-64v16,-27,47,-70,90,-58v5,3,8,8,9,14v-4,0,-14,11,-13,1r-2,-6v-51,5,-89,45,-83,102v47,-8,71,-48,94,-80v4,-3,7,-1,9,3"},"\/":{"d":"131,-284v-68,77,-108,187,-119,319r-11,0v12,-133,52,-246,121,-325","w":117},"\\":{"d":"120,35v-12,-131,-51,-242,-119,-319r9,-6v70,78,107,192,121,325r-11,0","w":133},"?":{"d":"142,-251v-21,-47,-110,-18,-135,2r-6,-13v41,-30,172,-45,148,39v-19,65,-152,95,-86,177v-24,11,-30,-25,-30,-49v15,-71,106,-76,109,-156xm45,-3v1,-6,-1,-15,3,-18v5,2,19,0,17,4r-1,14r-19,0","w":159},".":{"d":"7,-3v1,-6,0,-14,2,-18v5,2,16,-1,18,4r-2,14r-18,0","w":35},":":{"d":"7,-3v1,-6,0,-14,2,-18v5,2,16,-1,18,4r-2,14r-18,0xm7,-99v1,-6,0,-14,2,-18v5,2,16,-1,18,4r-2,14r-18,0","w":42},";":{"d":"17,36v-20,-5,5,-27,4,-40r-12,2r-3,-15v41,-8,21,34,11,53xm7,-99v1,-6,0,-14,2,-18v5,2,16,-1,18,4r-2,14r-18,0","w":37},",":{"d":"17,36v-20,-5,5,-27,4,-40r-12,2r-3,-15v41,-8,21,34,11,53","w":38},"-":{"d":"5,-118v17,6,40,-4,54,-6r0,12v-16,3,-40,7,-59,4","w":65},"+":{"d":"44,-71v-5,-11,-5,-28,-7,-41v-13,1,-25,2,-35,-2v2,-16,21,-5,35,-9r1,-35r11,0r-1,33r36,-6r4,11v-15,-1,-27,5,-40,7v1,10,3,31,6,40","w":91},"~":{"d":"89,-126v-14,28,-36,33,-52,10v-15,-5,-18,2,-28,15v-8,-4,-14,-9,-2,-15v12,-10,35,-17,44,0v13,12,25,-6,30,-17","w":92},"*":{"d":"134,-140v-30,8,-12,-40,-28,-48v-14,15,-12,60,-44,44v-8,0,-18,-4,-24,-2v2,15,45,18,30,39v-15,21,-34,40,-43,65r72,-42r83,95r-6,8r-68,-80v-12,-21,-22,-5,-37,4r-61,38v-8,-31,37,-66,51,-95v-15,-15,-38,-26,-47,-45v20,-3,49,6,70,3v9,-19,14,-43,25,-59v11,15,12,47,23,62v19,6,51,-5,74,0v-13,20,-44,30,-59,48v-1,24,10,53,14,75r-11,0r-17,-81v15,-13,34,-21,48,-33v-10,-3,-31,4,-45,4","w":205},"(":{"d":"86,86v-94,-54,-101,-248,-33,-339v9,-13,19,-25,28,-36r9,5v-78,65,-107,271,-16,345r20,17","w":58},")":{"d":"-35,78v100,-53,96,-268,18,-345v-5,-8,-21,-17,-6,-23v68,61,106,225,45,322v-13,21,-30,39,-50,54","w":69},"[":{"d":"15,-286v30,87,6,202,6,317v0,40,11,56,55,47r-1,11v-26,-1,-57,9,-61,-22v-12,-110,15,-241,-6,-344v-4,-4,-7,-7,-7,-10v9,-17,42,-15,65,-18r1,10v-18,0,-39,3,-52,9","w":54,"k":{"Y":-28,"W":98,"R":103,"P":203,"J":312,"l":-18}},"]":{"d":"43,-285v-12,-8,-34,-9,-52,-10r1,-10v22,3,56,1,64,18v-38,96,12,248,-16,369v-12,10,-37,8,-58,7r0,-11r27,1v54,-1,27,-95,27,-163v0,-67,-17,-148,7,-201","w":64},"{":{"d":"33,-90v51,17,-4,106,24,156v13,23,46,-2,64,-6r3,13v-14,6,-33,12,-52,13v-62,-14,-15,-108,-31,-158v-7,-9,-31,-14,-14,-28v18,-13,54,-19,41,-55v-15,-42,-76,-51,-63,-111v16,-31,60,-37,108,-36r-2,10v-52,-3,-119,13,-90,64v18,32,87,66,50,112v-9,11,-26,19,-38,26","w":92},"}":{"d":"-9,-302v53,3,117,3,110,60v-6,49,-68,53,-68,107v6,26,41,24,51,45v-1,14,-25,10,-25,34v0,47,20,112,-14,140v-21,8,-49,-3,-65,-11r3,-12v26,12,74,29,71,-21v8,-47,-27,-115,17,-130v-23,-14,-60,-28,-46,-68v14,-39,92,-66,53,-116v-19,-14,-50,-18,-84,-17","w":116},"|":{"d":"29,-289v-3,144,-18,302,10,431r-10,4v-27,-130,-13,-289,-11,-435r11,0","w":54},"=":{"d":"102,-112v-31,8,-61,15,-97,17r-1,-11v34,-1,64,-9,94,-15xm6,-140v30,0,53,-7,83,-6r1,11v-31,-1,-54,6,-85,6","w":110},"<":{"d":"84,-22v-25,-29,-97,-43,-75,-97v18,-25,35,-53,57,-75r9,8v-22,28,-49,52,-62,90v15,31,51,44,76,64","w":100},">":{"d":"7,-22v-10,-26,42,-33,55,-54v32,-21,0,-51,-15,-71v-12,-17,-13,-16,-30,-39r8,-8v21,36,52,54,65,95v-10,40,-59,49,-83,77","w":93},"^":{"d":"46,-265v-10,12,-23,24,-35,35r-8,-7v13,-14,31,-28,41,-44v21,-4,16,54,42,61r-7,9v-17,-11,-24,-35,-33,-54","w":93},"_":{"d":"5,-10r135,1r1,10r-138,-1","w":149},"@":{"d":"12,-71v7,80,95,104,181,96r3,11v-92,8,-170,-20,-194,-90v-3,-94,94,-156,199,-137v75,14,102,151,43,203v-35,14,-45,-28,-51,-60v-10,40,-78,76,-75,2v2,-49,24,-81,57,-102r6,9v-32,18,-63,62,-51,110v9,38,41,-3,49,-17v21,-16,-1,-67,20,-89v42,9,-6,62,5,91v7,19,7,48,31,46v25,-13,30,-44,30,-82v0,-97,-110,-132,-185,-81v-31,21,-62,46,-68,90xm203,-125v-6,5,-4,31,-5,39v5,-12,8,-26,5,-39xm198,-82r0,-1r0,1","w":287},"!":{"d":"22,-36v-37,-60,6,-152,-10,-226r11,-4v18,75,-25,157,8,224xm13,-5v1,-6,0,-14,2,-19v5,2,17,-2,18,5r-2,14r-18,0","w":43},"\"":{"d":"3,-207r-1,-51r11,-2r1,52xm37,-261r3,49r-10,2r-4,-50","w":48},"'":{"d":"3,-207r-1,-51r11,-2r1,52","w":22},"#":{"d":"55,-70r-23,6v-8,-15,10,-13,21,-17v-1,-10,-2,-21,-2,-33v-11,3,-23,10,-35,11v-7,-20,23,-15,34,-22v0,-18,-1,-38,2,-52r12,-2v-3,17,-1,32,-1,50r39,-10v2,-12,1,-28,5,-40r11,0r-5,38r38,-5r3,11v-14,0,-29,3,-42,5v-1,11,-3,20,-2,32v13,-2,24,-4,38,-3r0,10v-14,0,-26,2,-38,5v0,17,3,36,7,50r-10,3v-5,-15,-8,-33,-8,-51v-11,2,-23,7,-33,11v2,18,6,35,10,52v-5,2,-10,7,-12,-1v-3,-15,-6,-31,-9,-48xm101,-127v-13,2,-26,6,-38,10r2,32r34,-10","w":169},"$":{"d":"131,-198v-14,0,-23,4,-35,6r-1,68v48,1,91,42,41,76v-14,9,-26,20,-41,28v2,30,3,56,10,82r-10,3v-5,-26,-9,-52,-11,-80v-16,8,-39,12,-45,-6r10,-5v8,10,21,9,35,0r0,-90v-32,-9,-91,-4,-79,-46v17,-19,53,-30,79,-40v0,-19,-2,-39,-7,-52r10,-3v6,14,7,33,8,53v12,-2,24,-4,35,-4xm94,-31v24,-11,50,-28,55,-58v-8,-18,-35,-19,-54,-25xm84,-189v-27,6,-51,18,-70,33v2,23,46,25,70,30r0,-63","w":168},"%":{"d":"165,-84v1,38,-76,43,-82,6v-6,-34,43,-45,68,-31v9,6,14,13,14,25xm149,-263r-43,89v-31,63,-69,118,-94,186r-11,-4v40,-96,97,-181,139,-276xm49,-216v-21,-5,-31,23,-21,42v11,23,50,2,47,-19v-2,-11,-15,-16,-24,-20r6,-11v11,10,29,17,29,37v0,32,-65,51,-71,8v-4,-29,6,-52,35,-50xm91,-82v4,27,61,27,61,-6v-3,-27,-60,-19,-61,6","w":177},"&":{"d":"154,-44v4,-8,9,-15,17,-7r-8,13v11,5,23,13,35,15r-1,10v-14,-2,-28,-11,-40,-17v-14,28,-75,48,-99,13v-9,-24,9,-48,17,-67v-60,-25,-119,-151,-13,-170v66,-12,86,53,56,104v-7,23,-21,40,-31,61v22,16,44,30,67,45xm80,-94v15,-35,60,-90,31,-136v-38,-34,-121,0,-96,61v13,33,38,55,65,75xm82,-79v-20,26,-21,80,27,71v16,-3,29,-16,39,-27","w":190},"`":{"d":"81,-310v-23,17,-53,-31,-80,-37v24,-17,52,31,80,37","w":86},"a":{"d":"86,-66v7,46,25,87,50,118r-9,6v-24,-30,-40,-65,-49,-107v-10,31,-66,77,-74,19v-8,-57,20,-95,56,-119v11,9,1,10,-6,16v-24,20,-63,90,-26,121v24,-8,35,-33,47,-54v-2,-24,-11,-65,14,-71v26,13,3,53,-3,71xm89,-109v5,-26,-5,-17,-5,-1r0,23v3,-8,4,-15,5,-22xm84,-84r0,-2r0,2xm84,-87r0,1r0,-1","w":111},"\u00a0":{"w":101}}});
